digraph Tree {
node [shape=box, style="filled, rounded", color="black", fontname=helvetica] ;
edge [fontname=helvetica] ;
0 [label="steal_percentage <= 1.95\ngini = 0.61\nsamples = 268\nvalue = [41, 240, 66, 79]\nclass = Role Player", fillcolor="#aaf3a3"] ;
1 [label="total_rebound_percentage <= 17.45\ngini = 0.24\nsamples = 51\nvalue = [2, 65, 4, 4]\nclass = Role Player", fillcolor="#61e955"] ;
0 -> 1 [labeldistance=2.5, labelangle=45, headlabel="True"] ;
2 [label="free_throws <= 36.5\ngini = 0.17\nsamples = 43\nvalue = [2, 60, 2, 2]\nclass = Role Player", fillcolor="#58e74c"] ;
1 -> 2 ;
3 [label="gini = 0.0\nsamples = 1\nvalue = [1, 0, 0, 0]\nclass = Bust", fillcolor="#e58139"] ;
2 -> 3 ;
4 [label="two_pointers <= 304.0\ngini = 0.15\nsamples = 42\nvalue = [1, 60, 2, 2]\nclass = Role Player", fillcolor="#56e749"] ;
2 -> 4 ;
5 [label="gini = 0.0\nsamples = 20\nvalue = [0, 32, 0, 0]\nclass = Role Player", fillcolor="#47e539"] ;
4 -> 5 ;
6 [label="sprint <= 3.18\ngini = 0.27\nsamples = 22\nvalue = [1, 28, 2, 2]\nclass = Role Player", fillcolor="#65e959"] ;
4 -> 6 ;
7 [label="gini = 0.0\nsamples = 1\nvalue = [0, 0, 0, 1]\nclass = Bust", fillcolor="#d739e5"] ;
6 -> 7 ;
8 [label="wingspan <= 79.7\ngini = 0.23\nsamples = 21\nvalue = [1, 28, 2, 1]\nclass = Role Player", fillcolor="#60e853"] ;
6 -> 8 ;
9 [label="weight <= 197.34\ngini = 0.67\nsamples = 3\nvalue = [1, 1, 0, 1]\nclass = Bust", fillcolor="#ffffff"] ;
8 -> 9 ;
10 [label="gini = 0.0\nsamples = 1\nvalue = [0, 0, 0, 1]\nclass = Bust", fillcolor="#d739e5"] ;
9 -> 10 ;
11 [label="assist_percentage <= 15.1\ngini = 0.5\nsamples = 2\nvalue = [1, 1, 0, 0]\nclass = Bust", fillcolor="#ffffff"] ;
9 -> 11 ;
12 [label="gini = 0.0\nsamples = 1\nvalue = [1, 0, 0, 0]\nclass = Bust", fillcolor="#e58139"] ;
11 -> 12 ;
13 [label="gini = 0.0\nsamples = 1\nvalue = [0, 1, 0, 0]\nclass = Role Player", fillcolor="#47e539"] ;
11 -> 13 ;
14 [label="effective_field_goal_percentage <= 0.53\ngini = 0.13\nsamples = 18\nvalue = [0, 27, 2, 0]\nclass = Role Player", fillcolor="#55e748"] ;
8 -> 14 ;
15 [label="two_pointers <= 542.5\ngini = 0.35\nsamples = 7\nvalue = [0, 7, 2, 0]\nclass = Role Player", fillcolor="#7cec72"] ;
14 -> 15 ;
16 [label="turnovers <= 181.0\ngini = 0.22\nsamples = 6\nvalue = [0, 7, 1, 0]\nclass = Role Player", fillcolor="#61e955"] ;
15 -> 16 ;
17 [label="hand_width <= 9.67\ngini = 0.5\nsamples = 2\nvalue = [0, 1, 1, 0]\nclass = Role Player", fillcolor="#ffffff"] ;
16 -> 17 ;
18 [label="gini = 0.0\nsamples = 1\nvalue = [0, 1, 0, 0]\nclass = Role Player", fillcolor="#47e539"] ;
17 -> 18 ;
19 [label="gini = 0.0\nsamples = 1\nvalue = [0, 0, 1, 0]\nclass = Bust", fillcolor="#399de5"] ;
17 -> 19 ;
20 [label="gini = 0.0\nsamples = 4\nvalue = [0, 6, 0, 0]\nclass = Role Player", fillcolor="#47e539"] ;
16 -> 20 ;
21 [label="gini = 0.0\nsamples = 1\nvalue = [0, 0, 1, 0]\nclass = Bust", fillcolor="#399de5"] ;
15 -> 21 ;
22 [label="gini = 0.0\nsamples = 11\nvalue = [0, 20, 0, 0]\nclass = Role Player", fillcolor="#47e539"] ;
14 -> 22 ;
23 [label="two_point_percentage <= 0.56\ngini = 0.59\nsamples = 8\nvalue = [0, 5, 2, 2]\nclass = Role Player", fillcolor="#b0f4aa"] ;
1 -> 23 ;
24 [label="defensive_rebound_percentage <= 24.55\ngini = 0.41\nsamples = 7\nvalue = [0, 5, 2, 0]\nclass = Role Player", fillcolor="#91ef88"] ;
23 -> 24 ;
25 [label="total_rebounds <= 1054.0\ngini = 0.44\nsamples = 3\nvalue = [0, 1, 2, 0]\nclass = Bust", fillcolor="#9ccef2"] ;
24 -> 25 ;
26 [label="gini = 0.0\nsamples = 2\nvalue = [0, 0, 2, 0]\nclass = Bust", fillcolor="#399de5"] ;
25 -> 26 ;
27 [label="gini = 0.0\nsamples = 1\nvalue = [0, 1, 0, 0]\nclass = Role Player", fillcolor="#47e539"] ;
25 -> 27 ;
28 [label="gini = 0.0\nsamples = 4\nvalue = [0, 4, 0, 0]\nclass = Role Player", fillcolor="#47e539"] ;
24 -> 28 ;
29 [label="gini = 0.0\nsamples = 1\nvalue = [0, 0, 0, 2]\nclass = Bust", fillcolor="#d739e5"] ;
23 -> 29 ;
30 [label="sprint <= 3.18\ngini = 0.66\nsamples = 217\nvalue = [39, 175, 62, 75]\nclass = Role Player", fillcolor="#bcf6b7"] ;
0 -> 30 [labeldistance=2.5, labelangle=-45, headlabel="False"] ;
31 [label="personal_fouls <= 294.5\ngini = 0.69\nsamples = 38\nvalue = [7, 18, 11, 28]\nclass = Bust", fillcolor="#f6d4f9"] ;
30 -> 31 ;
32 [label="offensive_rebounds <= 98.0\ngini = 0.65\nsamples = 35\nvalue = [7, 18, 5, 28]\nclass = Bust", fillcolor="#f5cef8"] ;
31 -> 32 ;
33 [label="three_point_attempt_rate <= 0.17\ngini = 0.5\nsamples = 21\nvalue = [4, 5, 3, 26]\nclass = Bust", fillcolor="#e681ee"] ;
32 -> 33 ;
34 [label="weight <= 225.5\ngini = 0.5\nsamples = 3\nvalue = [0, 2, 2, 0]\nclass = Role Player", fillcolor="#ffffff"] ;
33 -> 34 ;
35 [label="gini = 0.0\nsamples = 1\nvalue = [0, 0, 2, 0]\nclass = Bust", fillcolor="#399de5"] ;
34 -> 35 ;
36 [label="gini = 0.0\nsamples = 2\nvalue = [0, 2, 0, 0]\nclass = Role Player", fillcolor="#47e539"] ;
34 -> 36 ;
37 [label="weight <= 171.15\ngini = 0.39\nsamples = 18\nvalue = [4, 3, 1, 26]\nclass = Bust", fillcolor="#e26eec"] ;
33 -> 37 ;
38 [label="gini = 0.0\nsamples = 2\nvalue = [0, 3, 0, 0]\nclass = Role Player", fillcolor="#47e539"] ;
37 -> 38 ;
39 [label="usage_percentage <= 24.94\ngini = 0.28\nsamples = 16\nvalue = [4, 0, 1, 26]\nclass = Bust", fillcolor="#de5eea"] ;
37 -> 39 ;
40 [label="gini = 0.0\nsamples = 9\nvalue = [0, 0, 0, 20]\nclass = Bust", fillcolor="#d739e5"] ;
39 -> 40 ;
41 [label="bench_press <= 7.89\ngini = 0.56\nsamples = 7\nvalue = [4, 0, 1, 6]\nclass = Bust", fillcolor="#f4c6f8"] ;
39 -> 41 ;
42 [label="gini = 0.0\nsamples = 2\nvalue = [0, 0, 0, 5]\nclass = Bust", fillcolor="#d739e5"] ;
41 -> 42 ;
43 [label="turnover_percentage <= 15.95\ngini = 0.5\nsamples = 5\nvalue = [4, 0, 1, 1]\nclass = Bust", fillcolor="#efb388"] ;
41 -> 43 ;
44 [label="two_point_percentage <= 0.51\ngini = 0.5\nsamples = 2\nvalue = [0, 0, 1, 1]\nclass = Bust", fillcolor="#ffffff"] ;
43 -> 44 ;
45 [label="gini = 0.0\nsamples = 1\nvalue = [0, 0, 1, 0]\nclass = Bust", fillcolor="#399de5"] ;
44 -> 45 ;
46 [label="gini = 0.0\nsamples = 1\nvalue = [0, 0, 0, 1]\nclass = Bust", fillcolor="#d739e5"] ;
44 -> 46 ;
47 [label="gini = 0.0\nsamples = 3\nvalue = [4, 0, 0, 0]\nclass = Bust", fillcolor="#e58139"] ;
43 -> 47 ;
48 [label="total_rebounds <= 559.0\ngini = 0.53\nsamples = 14\nvalue = [3, 13, 2, 2]\nclass = Role Player", fillcolor="#93f08b"] ;
32 -> 48 ;
49 [label="body_fat <= 4.58\ngini = 0.26\nsamples = 9\nvalue = [0, 12, 1, 1]\nclass = Role Player", fillcolor="#63e957"] ;
48 -> 49 ;
50 [label="gini = 0.0\nsamples = 1\nvalue = [0, 0, 0, 1]\nclass = Bust", fillcolor="#d739e5"] ;
49 -> 50 ;
51 [label="sprint <= 3.16\ngini = 0.14\nsamples = 8\nvalue = [0, 12, 1, 0]\nclass = Role Player", fillcolor="#56e749"] ;
49 -> 51 ;
52 [label="gini = 0.0\nsamples = 7\nvalue = [0, 12, 0, 0]\nclass = Role Player", fillcolor="#47e539"] ;
51 -> 52 ;
53 [label="gini = 0.0\nsamples = 1\nvalue = [0, 0, 1, 0]\nclass = Bust", fillcolor="#399de5"] ;
51 -> 53 ;
54 [label="block_percentage <= 3.38\ngini = 0.67\nsamples = 5\nvalue = [3, 1, 1, 1]\nclass = Bust", fillcolor="#f5cdb0"] ;
48 -> 54 ;
55 [label="steals <= 82.5\ngini = 0.38\nsamples = 3\nvalue = [3, 1, 0, 0]\nclass = Bust", fillcolor="#eeab7b"] ;
54 -> 55 ;
56 [label="gini = 0.0\nsamples = 1\nvalue = [0, 1, 0, 0]\nclass = Role Player", fillcolor="#47e539"] ;
55 -> 56 ;
57 [label="gini = 0.0\nsamples = 2\nvalue = [3, 0, 0, 0]\nclass = Bust", fillcolor="#e58139"] ;
55 -> 57 ;
58 [label="free_throw_percentage <= 0.67\ngini = 0.5\nsamples = 2\nvalue = [0, 0, 1, 1]\nclass = Bust", fillcolor="#ffffff"] ;
54 -> 58 ;
59 [label="gini = 0.0\nsamples = 1\nvalue = [0, 0, 0, 1]\nclass = Bust", fillcolor="#d739e5"] ;
58 -> 59 ;
60 [label="gini = 0.0\nsamples = 1\nvalue = [0, 0, 1, 0]\nclass = Bust", fillcolor="#399de5"] ;
58 -> 60 ;
61 [label="gini = 0.0\nsamples = 3\nvalue = [0, 0, 6, 0]\nclass = Bust", fillcolor="#399de5"] ;
31 -> 61 ;
62 [label="two_point_percentage <= 0.51\ngini = 0.63\nsamples = 179\nvalue = [32, 157, 51, 47]\nclass = Role Player", fillcolor="#acf3a6"] ;
30 -> 62 ;
63 [label="offensive_rebounds <= 81.0\ngini = 0.43\nsamples = 92\nvalue = [12, 107, 15, 11]\nclass = Role Player", fillcolor="#7ded73"] ;
62 -> 63 ;
64 [label="minutes_played <= 3209.5\ngini = 0.11\nsamples = 31\nvalue = [1, 50, 0, 2]\nclass = Role Player", fillcolor="#52e745"] ;
63 -> 64 ;
65 [label="height_no_shoes <= 71.12\ngini = 0.04\nsamples = 26\nvalue = [0, 45, 0, 1]\nclass = Role Player", fillcolor="#4be63d"] ;
64 -> 65 ;
66 [label="hand_width <= 8.68\ngini = 0.5\nsamples = 2\nvalue = [0, 1, 0, 1]\nclass = Role Player", fillcolor="#ffffff"] ;
65 -> 66 ;
67 [label="gini = 0.0\nsamples = 1\nvalue = [0, 1, 0, 0]\nclass = Role Player", fillcolor="#47e539"] ;
66 -> 67 ;
68 [label="gini = 0.0\nsamples = 1\nvalue = [0, 0, 0, 1]\nclass = Bust", fillcolor="#d739e5"] ;
66 -> 68 ;
69 [label="gini = 0.0\nsamples = 24\nvalue = [0, 44, 0, 0]\nclass = Role Player", fillcolor="#47e539"] ;
65 -> 69 ;
70 [label="three_point_attempts <= 631.0\ngini = 0.45\nsamples = 5\nvalue = [1, 5, 0, 1]\nclass = Role Player", fillcolor="#84ee7b"] ;
64 -> 70 ;
71 [label="free_throw_percentage <= 0.86\ngini = 0.5\nsamples = 2\nvalue = [1, 0, 0, 1]\nclass = Bust", fillcolor="#ffffff"] ;
70 -> 71 ;
72 [label="gini = 0.0\nsamples = 1\nvalue = [0, 0, 0, 1]\nclass = Bust", fillcolor="#d739e5"] ;
71 -> 72 ;
73 [label="gini = 0.0\nsamples = 1\nvalue = [1, 0, 0, 0]\nclass = Bust", fillcolor="#e58139"] ;
71 -> 73 ;
74 [label="gini = 0.0\nsamples = 3\nvalue = [0, 5, 0, 0]\nclass = Role Player", fillcolor="#47e539"] ;
70 -> 74 ;
75 [label="minutes_played <= 2194.0\ngini = 0.57\nsamples = 61\nvalue = [11, 57, 15, 9]\nclass = Role Player", fillcolor="#9bf193"] ;
63 -> 75 ;
76 [label="block_percentage <= 3.9\ngini = 0.74\nsamples = 17\nvalue = [7, 6, 5, 5]\nclass = Bust", fillcolor="#fdf8f3"] ;
75 -> 76 ;
77 [label="two_pointers <= 207.0\ngini = 0.71\nsamples = 14\nvalue = [7, 2, 5, 5]\nclass = Bust", fillcolor="#fbede3"] ;
76 -> 77 ;
78 [label="minutes_played <= 1193.5\ngini = 0.66\nsamples = 5\nvalue = [2, 1, 4, 1]\nclass = Bust", fillcolor="#bddef6"] ;
77 -> 78 ;
79 [label="sprint <= 3.22\ngini = 0.5\nsamples = 2\nvalue = [0, 1, 0, 1]\nclass = Role Player", fillcolor="#ffffff"] ;
78 -> 79 ;
80 [label="gini = 0.0\nsamples = 1\nvalue = [0, 1, 0, 0]\nclass = Role Player", fillcolor="#47e539"] ;
79 -> 80 ;
81 [label="gini = 0.0\nsamples = 1\nvalue = [0, 0, 0, 1]\nclass = Bust", fillcolor="#d739e5"] ;
79 -> 81 ;
82 [label="three_point_attempt_rate <= 0.17\ngini = 0.44\nsamples = 3\nvalue = [2, 0, 4, 0]\nclass = Bust", fillcolor="#9ccef2"] ;
78 -> 82 ;
83 [label="gini = 0.0\nsamples = 1\nvalue = [2, 0, 0, 0]\nclass = Bust", fillcolor="#e58139"] ;
82 -> 83 ;
84 [label="gini = 0.0\nsamples = 2\nvalue = [0, 0, 4, 0]\nclass = Bust", fillcolor="#399de5"] ;
82 -> 84 ;
85 [label="bench_press <= 4.0\ngini = 0.64\nsamples = 9\nvalue = [5, 1, 1, 4]\nclass = Bust", fillcolor="#fbede3"] ;
77 -> 85 ;
86 [label="gini = 0.0\nsamples = 2\nvalue = [4, 0, 0, 0]\nclass = Bust", fillcolor="#e58139"] ;
85 -> 86 ;
87 [label="two_point_percentage <= 0.48\ngini = 0.61\nsamples = 7\nvalue = [1, 1, 1, 4]\nclass = Bust", fillcolor="#eb9cf2"] ;
85 -> 87 ;
88 [label="gini = 0.0\nsamples = 1\nvalue = [0, 1, 0, 0]\nclass = Role Player", fillcolor="#47e539"] ;
87 -> 88 ;
89 [label="two_point_attempts <= 774.5\ngini = 0.5\nsamples = 6\nvalue = [1, 0, 1, 4]\nclass = Bust", fillcolor="#e788ef"] ;
87 -> 89 ;
90 [label="gini = 0.0\nsamples = 4\nvalue = [0, 0, 0, 4]\nclass = Bust", fillcolor="#d739e5"] ;
89 -> 90 ;
91 [label="effective_field_goal_percentage <= 0.49\ngini = 0.5\nsamples = 2\nvalue = [1, 0, 1, 0]\nclass = Bust", fillcolor="#ffffff"] ;
89 -> 91 ;
92 [label="gini = 0.0\nsamples = 1\nvalue = [1, 0, 0, 0]\nclass = Bust", fillcolor="#e58139"] ;
91 -> 92 ;
93 [label="gini = 0.0\nsamples = 1\nvalue = [0, 0, 1, 0]\nclass = Bust", fillcolor="#399de5"] ;
91 -> 93 ;
94 [label="gini = 0.0\nsamples = 3\nvalue = [0, 4, 0, 0]\nclass = Role Player", fillcolor="#47e539"] ;
76 -> 94 ;
95 [label="free_throw_attempt_rate <= 0.23\ngini = 0.43\nsamples = 44\nvalue = [4, 51, 10, 4]\nclass = Role Player", fillcolor="#7fed75"] ;
75 -> 95 ;
96 [label="gini = 0.0\nsamples = 2\nvalue = [0, 0, 4, 0]\nclass = Bust", fillcolor="#399de5"] ;
95 -> 96 ;
97 [label="assists <= 409.5\ngini = 0.37\nsamples = 42\nvalue = [4, 51, 6, 4]\nclass = Role Player", fillcolor="#73eb68"] ;
95 -> 97 ;
98 [label="sprint <= 3.2\ngini = 0.22\nsamples = 32\nvalue = [1, 44, 4, 1]\nclass = Role Player", fillcolor="#5fe853"] ;
97 -> 98 ;
99 [label="turnovers <= 178.5\ngini = 0.38\nsamples = 3\nvalue = [0, 1, 3, 0]\nclass = Bust", fillcolor="#7bbeee"] ;
98 -> 99 ;
100 [label="gini = 0.0\nsamples = 1\nvalue = [0, 1, 0, 0]\nclass = Role Player", fillcolor="#47e539"] ;
99 -> 100 ;
101 [label="gini = 0.0\nsamples = 2\nvalue = [0, 0, 3, 0]\nclass = Bust", fillcolor="#399de5"] ;
99 -> 101 ;
102 [label="three_point_attempts <= 11.0\ngini = 0.12\nsamples = 29\nvalue = [1, 43, 1, 1]\nclass = Role Player", fillcolor="#53e746"] ;
98 -> 102 ;
103 [label="gini = 0.0\nsamples = 1\nvalue = [1, 0, 0, 0]\nclass = Bust", fillcolor="#e58139"] ;
102 -> 103 ;
104 [label="turnovers <= 305.5\ngini = 0.09\nsamples = 28\nvalue = [0, 43, 1, 1]\nclass = Role Player", fillcolor="#4fe642"] ;
102 -> 104 ;
105 [label="standing_leap <= 24.0\ngini = 0.04\nsamples = 27\nvalue = [0, 43, 1, 0]\nclass = Role Player", fillcolor="#4be63e"] ;
104 -> 105 ;
106 [label="gini = 0.0\nsamples = 1\nvalue = [0, 0, 1, 0]\nclass = Bust", fillcolor="#399de5"] ;
105 -> 106 ;
107 [label="gini = 0.0\nsamples = 26\nvalue = [0, 43, 0, 0]\nclass = Role Player", fillcolor="#47e539"] ;
105 -> 107 ;
108 [label="gini = 0.0\nsamples = 1\nvalue = [0, 0, 0, 1]\nclass = Bust", fillcolor="#d739e5"] ;
104 -> 108 ;
109 [label="defensive_rebounds <= 506.5\ngini = 0.68\nsamples = 10\nvalue = [3, 7, 2, 3]\nclass = Role Player", fillcolor="#c2f6bd"] ;
97 -> 109 ;
110 [label="height_no_shoes <= 77.88\ngini = 0.57\nsamples = 8\nvalue = [0, 7, 2, 3]\nclass = Role Player", fillcolor="#adf3a7"] ;
109 -> 110 ;
111 [label="assists <= 421.5\ngini = 0.42\nsamples = 7\nvalue = [0, 7, 0, 3]\nclass = Role Player", fillcolor="#96f08e"] ;
110 -> 111 ;
112 [label="gini = 0.0\nsamples = 1\nvalue = [0, 0, 0, 2]\nclass = Bust", fillcolor="#d739e5"] ;
111 -> 112 ;
113 [label="usage_percentage <= 20.55\ngini = 0.22\nsamples = 6\nvalue = [0, 7, 0, 1]\nclass = Role Player", fillcolor="#61e955"] ;
111 -> 113 ;
114 [label="gini = 0.0\nsamples = 1\nvalue = [0, 0, 0, 1]\nclass = Bust", fillcolor="#d739e5"] ;
113 -> 114 ;
115 [label="gini = 0.0\nsamples = 5\nvalue = [0, 7, 0, 0]\nclass = Role Player", fillcolor="#47e539"] ;
113 -> 115 ;
116 [label="gini = 0.0\nsamples = 1\nvalue = [0, 0, 2, 0]\nclass = Bust", fillcolor="#399de5"] ;
110 -> 116 ;
117 [label="gini = 0.0\nsamples = 2\nvalue = [3, 0, 0, 0]\nclass = Bust", fillcolor="#e58139"] ;
109 -> 117 ;
118 [label="wingspan <= 81.62\ngini = 0.73\nsamples = 87\nvalue = [20, 50, 36, 36]\nclass = Role Player", fillcolor="#e7fce5"] ;
62 -> 118 ;
119 [label="two_point_attempts <= 482.5\ngini = 0.68\nsamples = 23\nvalue = [12, 7, 6, 21]\nclass = Bust", fillcolor="#f4cbf8"] ;
118 -> 119 ;
120 [label="height_no_shoes <= 73.0\ngini = 0.5\nsamples = 9\nvalue = [10, 2, 0, 3]\nclass = Bust", fillcolor="#f0b68c"] ;
119 -> 120 ;
121 [label="gini = 0.0\nsamples = 1\nvalue = [0, 0, 0, 2]\nclass = Bust", fillcolor="#d739e5"] ;
120 -> 121 ;
122 [label="turnover_percentage <= 11.75\ngini = 0.38\nsamples = 8\nvalue = [10, 2, 0, 1]\nclass = Bust", fillcolor="#eca36f"] ;
120 -> 122 ;
123 [label="hand_width <= 10.0\ngini = 0.5\nsamples = 2\nvalue = [0, 1, 0, 1]\nclass = Role Player", fillcolor="#ffffff"] ;
122 -> 123 ;
124 [label="gini = 0.0\nsamples = 1\nvalue = [0, 0, 0, 1]\nclass = Bust", fillcolor="#d739e5"] ;
123 -> 124 ;
125 [label="gini = 0.0\nsamples = 1\nvalue = [0, 1, 0, 0]\nclass = Role Player", fillcolor="#47e539"] ;
123 -> 125 ;
126 [label="turnovers <= 236.0\ngini = 0.17\nsamples = 6\nvalue = [10, 1, 0, 0]\nclass = Bust", fillcolor="#e88e4d"] ;
122 -> 126 ;
127 [label="gini = 0.0\nsamples = 5\nvalue = [10, 0, 0, 0]\nclass = Bust", fillcolor="#e58139"] ;
126 -> 127 ;
128 [label="gini = 0.0\nsamples = 1\nvalue = [0, 1, 0, 0]\nclass = Role Player", fillcolor="#47e539"] ;
126 -> 128 ;
129 [label="lane_agility <= 11.38\ngini = 0.6\nsamples = 14\nvalue = [2, 5, 6, 18]\nclass = Bust", fillcolor="#eca0f3"] ;
119 -> 129 ;
130 [label="standing_leap <= 32.25\ngini = 0.44\nsamples = 12\nvalue = [2, 5, 0, 18]\nclass = Bust", fillcolor="#e57eee"] ;
129 -> 130 ;
131 [label="offensive_rebounds <= 122.0\ngini = 0.3\nsamples = 9\nvalue = [0, 4, 0, 18]\nclass = Bust", fillcolor="#e065eb"] ;
130 -> 131 ;
132 [label="gini = 0.0\nsamples = 4\nvalue = [0, 0, 0, 12]\nclass = Bust", fillcolor="#d739e5"] ;
131 -> 132 ;
133 [label="total_rebounds <= 601.0\ngini = 0.48\nsamples = 5\nvalue = [0, 4, 0, 6]\nclass = Bust", fillcolor="#f2bdf6"] ;
131 -> 133 ;
134 [label="gini = 0.0\nsamples = 2\nvalue = [0, 4, 0, 0]\nclass = Role Player", fillcolor="#47e539"] ;
133 -> 134 ;
135 [label="gini = 0.0\nsamples = 3\nvalue = [0, 0, 0, 6]\nclass = Bust", fillcolor="#d739e5"] ;
133 -> 135 ;
136 [label="blocks <= 30.5\ngini = 0.44\nsamples = 3\nvalue = [2, 1, 0, 0]\nclass = Bust", fillcolor="#f2c09c"] ;
130 -> 136 ;
137 [label="gini = 0.0\nsamples = 1\nvalue = [0, 1, 0, 0]\nclass = Role Player", fillcolor="#47e539"] ;
136 -> 137 ;
138 [label="gini = 0.0\nsamples = 2\nvalue = [2, 0, 0, 0]\nclass = Bust", fillcolor="#e58139"] ;
136 -> 138 ;
139 [label="gini = 0.0\nsamples = 2\nvalue = [0, 0, 6, 0]\nclass = Bust", fillcolor="#399de5"] ;
129 -> 139 ;
140 [label="three_point_percentage <= 0.22\ngini = 0.67\nsamples = 64\nvalue = [8, 43, 30, 15]\nclass = Role Player", fillcolor="#dbfad8"] ;
118 -> 140 ;
141 [label="bench_press <= 12.5\ngini = 0.56\nsamples = 11\nvalue = [6, 7, 1, 0]\nclass = Role Player", fillcolor="#e8fce6"] ;
140 -> 141 ;
142 [label="block_percentage <= 5.6\ngini = 0.51\nsamples = 9\nvalue = [3, 7, 1, 0]\nclass = Role Player", fillcolor="#a3f29c"] ;
141 -> 142 ;
143 [label="height_shoes <= 83.24\ngini = 0.22\nsamples = 7\nvalue = [0, 7, 1, 0]\nclass = Role Player", fillcolor="#61e955"] ;
142 -> 143 ;
144 [label="gini = 0.0\nsamples = 5\nvalue = [0, 5, 0, 0]\nclass = Role Player", fillcolor="#47e539"] ;
143 -> 144 ;
145 [label="points <= 1302.0\ngini = 0.44\nsamples = 2\nvalue = [0, 2, 1, 0]\nclass = Role Player", fillcolor="#a3f29c"] ;
143 -> 145 ;
146 [label="gini = 0.0\nsamples = 1\nvalue = [0, 0, 1, 0]\nclass = Bust", fillcolor="#399de5"] ;
145 -> 146 ;
147 [label="gini = 0.0\nsamples = 1\nvalue = [0, 2, 0, 0]\nclass = Role Player", fillcolor="#47e539"] ;
145 -> 147 ;
148 [label="gini = 0.0\nsamples = 2\nvalue = [3, 0, 0, 0]\nclass = Bust", fillcolor="#e58139"] ;
142 -> 148 ;
149 [label="gini = 0.0\nsamples = 2\nvalue = [3, 0, 0, 0]\nclass = Bust", fillcolor="#e58139"] ;
141 -> 149 ;
150 [label="free_throw_percentage <= 0.59\ngini = 0.65\nsamples = 53\nvalue = [2, 36, 29, 15]\nclass = Role Player", fillcolor="#e7fce5"] ;
140 -> 150 ;
151 [label="free_throw_attempt <= 159.0\ngini = 0.15\nsamples = 8\nvalue = [0, 11, 0, 1]\nclass = Role Player", fillcolor="#58e74b"] ;
150 -> 151 ;
152 [label="max_leap <= 31.74\ngini = 0.5\nsamples = 2\nvalue = [0, 1, 0, 1]\nclass = Role Player", fillcolor="#ffffff"] ;
151 -> 152 ;
153 [label="gini = 0.0\nsamples = 1\nvalue = [0, 1, 0, 0]\nclass = Role Player", fillcolor="#47e539"] ;
152 -> 153 ;
154 [label="gini = 0.0\nsamples = 1\nvalue = [0, 0, 0, 1]\nclass = Bust", fillcolor="#d739e5"] ;
152 -> 154 ;
155 [label="gini = 0.0\nsamples = 6\nvalue = [0, 10, 0, 0]\nclass = Role Player", fillcolor="#47e539"] ;
151 -> 155 ;
156 [label="weight <= 231.2\ngini = 0.66\nsamples = 45\nvalue = [2, 25, 29, 14]\nclass = Bust", fillcolor="#edf6fd"] ;
150 -> 156 ;
157 [label="two_point_percentage <= 0.58\ngini = 0.65\nsamples = 17\nvalue = [1, 8, 4, 11]\nclass = Bust", fillcolor="#f8dafa"] ;
156 -> 157 ;
158 [label="block_percentage <= 2.53\ngini = 0.53\nsamples = 15\nvalue = [1, 8, 0, 11]\nclass = Bust", fillcolor="#f5cef8"] ;
157 -> 158 ;
159 [label="gini = 0.0\nsamples = 4\nvalue = [0, 5, 0, 0]\nclass = Role Player", fillcolor="#47e539"] ;
158 -> 159 ;
160 [label="two_point_attempts <= 960.0\ngini = 0.42\nsamples = 11\nvalue = [1, 3, 0, 11]\nclass = Bust", fillcolor="#e47bee"] ;
158 -> 160 ;
161 [label="free_throws <= 450.0\ngini = 0.17\nsamples = 7\nvalue = [0, 1, 0, 10]\nclass = Bust", fillcolor="#db4de8"] ;
160 -> 161 ;
162 [label="gini = 0.0\nsamples = 6\nvalue = [0, 0, 0, 10]\nclass = Bust", fillcolor="#d739e5"] ;
161 -> 162 ;
163 [label="gini = 0.0\nsamples = 1\nvalue = [0, 1, 0, 0]\nclass = Role Player", fillcolor="#47e539"] ;
161 -> 163 ;
164 [label="free_throws <= 566.5\ngini = 0.62\nsamples = 4\nvalue = [1, 2, 0, 1]\nclass = Role Player", fillcolor="#c2f6bd"] ;
160 -> 164 ;
165 [label="gini = 0.0\nsamples = 2\nvalue = [0, 2, 0, 0]\nclass = Role Player", fillcolor="#47e539"] ;
164 -> 165 ;
166 [label="weight <= 228.0\ngini = 0.5\nsamples = 2\nvalue = [1, 0, 0, 1]\nclass = Bust", fillcolor="#ffffff"] ;
164 -> 166 ;
167 [label="gini = 0.0\nsamples = 1\nvalue = [1, 0, 0, 0]\nclass = Bust", fillcolor="#e58139"] ;
166 -> 167 ;
168 [label="gini = 0.0\nsamples = 1\nvalue = [0, 0, 0, 1]\nclass = Bust", fillcolor="#d739e5"] ;
166 -> 168 ;
169 [label="gini = 0.0\nsamples = 2\nvalue = [0, 0, 4, 0]\nclass = Bust", fillcolor="#399de5"] ;
157 -> 169 ;
170 [label="two_pointers <= 249.0\ngini = 0.56\nsamples = 28\nvalue = [1, 17, 25, 3]\nclass = Bust", fillcolor="#c8e4f8"] ;
156 -> 170 ;
171 [label="assist_percentage <= 6.75\ngini = 0.3\nsamples = 7\nvalue = [0, 9, 0, 2]\nclass = Role Player", fillcolor="#70eb65"] ;
170 -> 171 ;
172 [label="gini = 0.0\nsamples = 1\nvalue = [0, 0, 0, 1]\nclass = Bust", fillcolor="#d739e5"] ;
171 -> 172 ;
173 [label="bench_press <= 9.89\ngini = 0.18\nsamples = 6\nvalue = [0, 9, 0, 1]\nclass = Role Player", fillcolor="#5be84f"] ;
171 -> 173 ;
174 [label="total_rebound_percentage <= 16.6\ngini = 0.5\nsamples = 2\nvalue = [0, 1, 0, 1]\nclass = Role Player", fillcolor="#ffffff"] ;
173 -> 174 ;
175 [label="gini = 0.0\nsamples = 1\nvalue = [0, 0, 0, 1]\nclass = Bust", fillcolor="#d739e5"] ;
174 -> 175 ;
176 [label="gini = 0.0\nsamples = 1\nvalue = [0, 1, 0, 0]\nclass = Role Player", fillcolor="#47e539"] ;
174 -> 176 ;
177 [label="gini = 0.0\nsamples = 4\nvalue = [0, 8, 0, 0]\nclass = Role Player", fillcolor="#47e539"] ;
173 -> 177 ;
178 [label="reach <= 108.75\ngini = 0.44\nsamples = 21\nvalue = [1, 8, 25, 1]\nclass = Bust", fillcolor="#82c1ef"] ;
170 -> 178 ;
179 [label="three_point_attempts <= 199.5\ngini = 0.09\nsamples = 11\nvalue = [0, 0, 19, 1]\nclass = Bust", fillcolor="#43a2e6"] ;
178 -> 179 ;
180 [label="gini = 0.0\nsamples = 10\nvalue = [0, 0, 19, 0]\nclass = Bust", fillcolor="#399de5"] ;
179 -> 180 ;
181 [label="gini = 0.0\nsamples = 1\nvalue = [0, 0, 0, 1]\nclass = Bust", fillcolor="#d739e5"] ;
179 -> 181 ;
182 [label="steals <= 36.5\ngini = 0.55\nsamples = 10\nvalue = [1, 8, 6, 0]\nclass = Role Player", fillcolor="#d6f9d3"] ;
178 -> 182 ;
183 [label="gini = 0.0\nsamples = 2\nvalue = [0, 0, 4, 0]\nclass = Bust", fillcolor="#399de5"] ;
182 -> 183 ;
184 [label="blocks <= 226.0\ngini = 0.43\nsamples = 8\nvalue = [1, 8, 2, 0]\nclass = Role Player", fillcolor="#84ee7b"] ;
182 -> 184 ;
185 [label="gini = 0.0\nsamples = 5\nvalue = [0, 8, 0, 0]\nclass = Role Player", fillcolor="#47e539"] ;
184 -> 185 ;
186 [label="true_shooting_percentage <= 0.62\ngini = 0.44\nsamples = 3\nvalue = [1, 0, 2, 0]\nclass = Bust", fillcolor="#9ccef2"] ;
184 -> 186 ;
187 [label="gini = 0.0\nsamples = 2\nvalue = [0, 0, 2, 0]\nclass = Bust", fillcolor="#399de5"] ;
186 -> 187 ;
188 [label="gini = 0.0\nsamples = 1\nvalue = [1, 0, 0, 0]\nclass = Bust", fillcolor="#e58139"] ;
186 -> 188 ;
}